-0.3200326720642701
-0.7027497298907168
0.8026479495922545
-0.8713984736340867
0.16747963350054262
-0.3993342096695738
0.6374422575227237
-0.47644861735576605
0.9189829797983537
0.8670747708022426
0.3782835116772272
0.9986553932007949
0.050582424683559335
-0.2306347475962056
0.5262997321447862
-0.6959709845753359
-0.34395613047873397
0.557335876858231
-0.29025304135046315
-0.1549294080537209
0.271693118944895
-0.16950454788064917
-0.10758873014927883
-0.596755118225845
-0.5914777571682124
0.8553220793750154
0.5265544609051855
-0.0773329114253345
-0.5550929812304113
-0.24159472910886604
-0.2727664940636514
-0.6439792568412799
0.02070089733026159
-0.013692229021765145
-0.6993854132105188
0.504591448857636
0.48460906867512143
0.33628566790345005
0.07621186638540345
0.18774114404257225
-0.44818343834926133
0.8936261709123068
-0.2708134375819382
-0.36730280879650135
-0.7228786201232718
0.9397757470651962
-0.8729988005423082
-0.2802614060157942
-0.5149776781842204
-0.06464461161152157
0.4909363551946804
-0.36047805068617067
-0.05426166117500064
-0.29973768280668245
-0.6002520930713899
-0.6077301319671755
0.6302773480305508
0.7290472600740969
-0.5797784195521785
0.967832885702919
-0.10403376151299404
0.02444226884650913
-0.13520633006648786
0.09964364507676393
0.8399819826609889
-0.42338558984821395
0.15052694062500627
-0.49661768461758826
0.7248208722824077
-0.15262698015599052
-0.8311271552297659
0.08764052690667867
-0.047929229240545324
0.6100657812112162
0.6524092683540617
0.4244613394496195
-0.5524249636485112
0.3875765922960175
-0.10126683437210815
0.845555251898626
-0.6460380556396994
-0.2841535463850242
-0.5666129512776177
-0.8698625696332865
-0.1645638611656599
-0.3644026658437598
0.6150028459594286
-0.3417375013337385
-0.4379524451240433
0.2541792160256846
-0.689568143286402
0.06393593233129824
0.5793150556346729
0.29018614781699137
-0.8301892597654865
0.6974171125481341
-0.00959104604342964
-0.24037220334564435
-0.1411509675539453
-0.3800123860083904
